digraph Tree {
node [shape=box] ;
0 [label="X[2] <= 2715.5\nmse = 64.293\nsamples = 158\nvalue = 24.008"] ;
1 [label="X[2] <= 2117.0\nmse = 37.179\nsamples = 79\nvalue = 29.89"] ;
0 -> 1 [labeldistance=2.5, labelangle=45, headlabel="True"] ;
2 [label="X[4] <= 77.5\nmse = 27.233\nsamples = 29\nvalue = 35.052"] ;
1 -> 2 ;
3 [label="X[1] <= 26.0\nmse = 6.264\nsamples = 12\nvalue = 31.167"] ;
2 -> 3 ;
4 [label="mse = 0.0\nsamples = 1\nvalue = 25.0"] ;
3 -> 4 ;
5 [label="X[3] <= 14.95\nmse = 3.062\nsamples = 11\nvalue = 31.727"] ;
3 -> 5 ;
6 [label="X[2] <= 1881.0\nmse = 0.062\nsamples = 2\nvalue = 29.25"] ;
5 -> 6 ;
7 [label="mse = 0.0\nsamples = 1\nvalue = 29.5"] ;
6 -> 7 ;
8 [label="mse = 0.0\nsamples = 1\nvalue = 29.0"] ;
6 -> 8 ;
9 [label="X[2] <= 1631.0\nmse = 2.062\nsamples = 9\nvalue = 32.278"] ;
5 -> 9 ;
10 [label="mse = 0.0\nsamples = 1\nvalue = 35.0"] ;
9 -> 10 ;
11 [label="X[0] <= 88.0\nmse = 1.277\nsamples = 8\nvalue = 31.938"] ;
9 -> 11 ;
12 [label="X[5] <= 2.5\nmse = 0.56\nsamples = 5\nvalue = 31.2"] ;
11 -> 12 ;
13 [label="mse = 0.0\nsamples = 1\nvalue = 30.0"] ;
12 -> 13 ;
14 [label="X[0] <= 73.5\nmse = 0.25\nsamples = 4\nvalue = 31.5"] ;
12 -> 14 ;
15 [label="mse = 0.0\nsamples = 1\nvalue = 32.0"] ;
14 -> 15 ;
16 [label="X[2] <= 1970.0\nmse = 0.222\nsamples = 3\nvalue = 31.333"] ;
14 -> 16 ;
17 [label="mse = 0.0\nsamples = 2\nvalue = 31.0"] ;
16 -> 17 ;
18 [label="mse = 0.0\nsamples = 1\nvalue = 32.0"] ;
16 -> 18 ;
19 [label="X[5] <= 2.0\nmse = 0.056\nsamples = 3\nvalue = 33.167"] ;
11 -> 19 ;
20 [label="mse = 0.0\nsamples = 1\nvalue = 33.5"] ;
19 -> 20 ;
21 [label="mse = 0.0\nsamples = 2\nvalue = 33.0"] ;
19 -> 21 ;
22 [label="X[3] <= 17.75\nmse = 23.859\nsamples = 17\nvalue = 37.794"] ;
2 -> 22 ;
23 [label="X[2] <= 1900.0\nmse = 15.817\nsamples = 13\nvalue = 35.977"] ;
22 -> 23 ;
24 [label="X[3] <= 14.1\nmse = 9.749\nsamples = 6\nvalue = 39.133"] ;
23 -> 24 ;
25 [label="mse = 0.0\nsamples = 1\nvalue = 44.6"] ;
24 -> 25 ;
26 [label="X[3] <= 16.25\nmse = 4.526\nsamples = 5\nvalue = 38.04"] ;
24 -> 26 ;
27 [label="X[1] <= 63.0\nmse = 0.25\nsamples = 2\nvalue = 35.6"] ;
26 -> 27 ;
28 [label="mse = 0.0\nsamples = 1\nvalue = 35.1"] ;
27 -> 28 ;
29 [label="mse = 0.0\nsamples = 1\nvalue = 36.1"] ;
27 -> 29 ;
30 [label="X[3] <= 17.1\nmse = 0.762\nsamples = 3\nvalue = 39.667"] ;
26 -> 30 ;
31 [label="X[0] <= 82.5\nmse = 0.003\nsamples = 2\nvalue = 39.05"] ;
30 -> 31 ;
32 [label="mse = 0.0\nsamples = 1\nvalue = 39.1"] ;
31 -> 32 ;
33 [label="mse = 0.0\nsamples = 1\nvalue = 39.0"] ;
31 -> 33 ;
34 [label="mse = -0.0\nsamples = 1\nvalue = 40.9"] ;
30 -> 34 ;
35 [label="X[2] <= 1992.5\nmse = 5.159\nsamples = 7\nvalue = 33.271"] ;
23 -> 35 ;
36 [label="X[2] <= 1977.5\nmse = 1.124\nsamples = 5\nvalue = 32.1"] ;
35 -> 36 ;
37 [label="X[3] <= 16.65\nmse = 0.202\nsamples = 3\nvalue = 31.633"] ;
36 -> 37 ;
38 [label="X[5] <= 2.5\nmse = 0.002\nsamples = 2\nvalue = 31.95"] ;
37 -> 38 ;
39 [label="mse = 0.0\nsamples = 1\nvalue = 31.9"] ;
38 -> 39 ;
40 [label="mse = 0.0\nsamples = 1\nvalue = 32.0"] ;
38 -> 40 ;
41 [label="mse = -0.0\nsamples = 1\nvalue = 31.0"] ;
37 -> 41 ;
42 [label="X[2] <= 1987.5\nmse = 1.69\nsamples = 2\nvalue = 32.8"] ;
36 -> 42 ;
43 [label="mse = 0.0\nsamples = 1\nvalue = 34.1"] ;
42 -> 43 ;
44 [label="mse = 0.0\nsamples = 1\nvalue = 31.5"] ;
42 -> 44 ;
45 [label="X[4] <= 81.5\nmse = 3.24\nsamples = 2\nvalue = 36.2"] ;
35 -> 45 ;
46 [label="mse = 0.0\nsamples = 1\nvalue = 34.4"] ;
45 -> 46 ;
47 [label="mse = -0.0\nsamples = 1\nvalue = 38.0"] ;
45 -> 47 ;
48 [label="X[3] <= 18.55\nmse = 4.385\nsamples = 4\nvalue = 43.7"] ;
22 -> 48 ;
49 [label="mse = 0.0\nsamples = 1\nvalue = 46.6"] ;
48 -> 49 ;
50 [label="X[3] <= 20.35\nmse = 2.109\nsamples = 3\nvalue = 42.733"] ;
48 -> 50 ;
51 [label="mse = 0.0\nsamples = 1\nvalue = 40.8"] ;
50 -> 51 ;
52 [label="X[2] <= 2035.0\nmse = 0.36\nsamples = 2\nvalue = 43.7"] ;
50 -> 52 ;
53 [label="mse = 0.0\nsamples = 1\nvalue = 43.1"] ;
52 -> 53 ;
54 [label="mse = -0.0\nsamples = 1\nvalue = 44.3"] ;
52 -> 54 ;
55 [label="X[4] <= 77.0\nmse = 18.531\nsamples = 50\nvalue = 26.896"] ;
1 -> 55 ;
56 [label="X[3] <= 13.55\nmse = 6.832\nsamples = 27\nvalue = 24.037"] ;
55 -> 56 ;
57 [label="X[2] <= 2227.0\nmse = 0.222\nsamples = 3\nvalue = 18.667"] ;
56 -> 57 ;
58 [label="mse = 0.0\nsamples = 1\nvalue = 18.0"] ;
57 -> 58 ;
59 [label="mse = 0.0\nsamples = 2\nvalue = 19.0"] ;
57 -> 59 ;
60 [label="X[0] <= 169.5\nmse = 3.602\nsamples = 24\nvalue = 24.708"] ;
56 -> 60 ;
61 [label="X[0] <= 104.5\nmse = 2.566\nsamples = 22\nvalue = 25.045"] ;
60 -> 61 ;
62 [label="X[3] <= 19.9\nmse = 2.777\nsamples = 8\nvalue = 26.062"] ;
61 -> 62 ;
63 [label="X[2] <= 2128.0\nmse = 1.139\nsamples = 6\nvalue = 26.833"] ;
62 -> 63 ;
64 [label="mse = 0.0\nsamples = 1\nvalue = 25.0"] ;
63 -> 64 ;
65 [label="X[3] <= 17.35\nmse = 0.56\nsamples = 5\nvalue = 27.2"] ;
63 -> 65 ;
66 [label="X[3] <= 14.75\nmse = 0.25\nsamples = 4\nvalue = 27.5"] ;
65 -> 66 ;
67 [label="mse = 0.0\nsamples = 1\nvalue = 27.0"] ;
66 -> 67 ;
68 [label="X[4] <= 74.0\nmse = 0.222\nsamples = 3\nvalue = 27.667"] ;
66 -> 68 ;
69 [label="mse = 0.0\nsamples = 2\nvalue = 28.0"] ;
68 -> 69 ;
70 [label="mse = 0.0\nsamples = 1\nvalue = 27.0"] ;
68 -> 70 ;
71 [label="mse = 0.0\nsamples = 1\nvalue = 26.0"] ;
65 -> 71 ;
72 [label="X[1] <= 57.0\nmse = 0.562\nsamples = 2\nvalue = 23.75"] ;
62 -> 72 ;
73 [label="mse = 0.0\nsamples = 1\nvalue = 23.0"] ;
72 -> 73 ;
74 [label="mse = 0.0\nsamples = 1\nvalue = 24.5"] ;
72 -> 74 ;
75 [label="X[4] <= 73.5\nmse = 1.517\nsamples = 14\nvalue = 24.464"] ;
61 -> 75 ;
76 [label="X[0] <= 109.0\nmse = 1.04\nsamples = 5\nvalue = 23.6"] ;
75 -> 76 ;
77 [label="mse = 0.0\nsamples = 1\nvalue = 22.0"] ;
76 -> 77 ;
78 [label="X[0] <= 113.0\nmse = 0.5\nsamples = 4\nvalue = 24.0"] ;
76 -> 78 ;
79 [label="mse = 0.0\nsamples = 1\nvalue = 25.0"] ;
78 -> 79 ;
80 [label="X[5] <= 1.5\nmse = 0.222\nsamples = 3\nvalue = 23.667"] ;
78 -> 80 ;
81 [label="mse = 0.0\nsamples = 1\nvalue = 23.0"] ;
80 -> 81 ;
82 [label="mse = 0.0\nsamples = 2\nvalue = 24.0"] ;
80 -> 82 ;
83 [label="X[3] <= 14.45\nmse = 1.136\nsamples = 9\nvalue = 24.944"] ;
75 -> 83 ;
84 [label="X[4] <= 75.0\nmse = 0.062\nsamples = 2\nvalue = 26.25"] ;
83 -> 84 ;
85 [label="mse = 0.0\nsamples = 1\nvalue = 26.0"] ;
84 -> 85 ;
86 [label="mse = 0.0\nsamples = 1\nvalue = 26.5"] ;
84 -> 86 ;
87 [label="X[2] <= 2582.0\nmse = 0.816\nsamples = 7\nvalue = 24.571"] ;
83 -> 87 ;
88 [label="X[1] <= 95.0\nmse = 0.472\nsamples = 6\nvalue = 24.833"] ;
87 -> 88 ;
89 [label="X[5] <= 2.5\nmse = 0.188\nsamples = 4\nvalue = 25.25"] ;
88 -> 89 ;
90 [label="mse = 0.0\nsamples = 3\nvalue = 25.0"] ;
89 -> 90 ;
91 [label="mse = 0.0\nsamples = 1\nvalue = 26.0"] ;
89 -> 91 ;
92 [label="mse = 0.0\nsamples = 2\nvalue = 24.0"] ;
88 -> 92 ;
93 [label="mse = 0.0\nsamples = 1\nvalue = 23.0"] ;
87 -> 93 ;
94 [label="mse = 0.0\nsamples = 2\nvalue = 21.0"] ;
60 -> 94 ;
95 [label="X[2] <= 2370.0\nmse = 11.406\nsamples = 23\nvalue = 30.252"] ;
55 -> 95 ;
96 [label="X[4] <= 78.5\nmse = 6.608\nsamples = 10\nvalue = 33.1"] ;
95 -> 96 ;
97 [label="X[3] <= 15.6\nmse = 1.96\nsamples = 2\nvalue = 28.6"] ;
96 -> 97 ;
98 [label="mse = 0.0\nsamples = 1\nvalue = 27.2"] ;
97 -> 98 ;
99 [label="mse = -0.0\nsamples = 1\nvalue = 30.0"] ;
97 -> 99 ;
100 [label="X[4] <= 81.5\nmse = 1.442\nsamples = 8\nvalue = 34.225"] ;
96 -> 100 ;
101 [label="X[1] <= 71.0\nmse = 0.594\nsamples = 5\nvalue = 33.56"] ;
100 -> 101 ;
102 [label="X[0] <= 102.5\nmse = 0.023\nsamples = 2\nvalue = 34.35"] ;
101 -> 102 ;
103 [label="mse = 0.0\nsamples = 1\nvalue = 34.5"] ;
102 -> 103 ;
104 [label="mse = 0.0\nsamples = 1\nvalue = 34.2"] ;
102 -> 104 ;
105 [label="X[1] <= 74.5\nmse = 0.282\nsamples = 3\nvalue = 33.033"] ;
101 -> 105 ;
106 [label="X[3] <= 15.6\nmse = 0.09\nsamples = 2\nvalue = 32.7"] ;
105 -> 106 ;
107 [label="mse = 0.0\nsamples = 1\nvalue = 33.0"] ;
106 -> 107 ;
108 [label="mse = -0.0\nsamples = 1\nvalue = 32.4"] ;
106 -> 108 ;
109 [label="mse = -0.0\nsamples = 1\nvalue = 33.7"] ;
105 -> 109 ;
110 [label="X[2] <= 2225.0\nmse = 0.889\nsamples = 3\nvalue = 35.333"] ;
100 -> 110 ;
111 [label="mse = 0.0\nsamples = 2\nvalue = 36.0"] ;
110 -> 111 ;
112 [label="mse = 0.0\nsamples = 1\nvalue = 34.0"] ;
110 -> 112 ;
113 [label="X[0] <= 91.0\nmse = 4.059\nsamples = 13\nvalue = 28.062"] ;
95 -> 113 ;
114 [label="mse = 0.0\nsamples = 1\nvalue = 23.7"] ;
113 -> 114 ;
115 [label="X[5] <= 2.0\nmse = 2.68\nsamples = 12\nvalue = 28.425"] ;
113 -> 115 ;
116 [label="X[2] <= 2600.0\nmse = 1.648\nsamples = 9\nvalue = 27.978"] ;
115 -> 116 ;
117 [label="X[0] <= 123.5\nmse = 2.427\nsamples = 3\nvalue = 29.0"] ;
116 -> 117 ;
118 [label="mse = 0.0\nsamples = 1\nvalue = 31.0"] ;
117 -> 118 ;
119 [label="X[3] <= 13.5\nmse = 0.64\nsamples = 2\nvalue = 28.0"] ;
117 -> 119 ;
120 [label="mse = 0.0\nsamples = 1\nvalue = 28.8"] ;
119 -> 120 ;
121 [label="mse = 0.0\nsamples = 1\nvalue = 27.2"] ;
119 -> 121 ;
122 [label="X[2] <= 2630.0\nmse = 0.476\nsamples = 6\nvalue = 27.467"] ;
116 -> 122 ;
123 [label="mse = 0.0\nsamples = 2\nvalue = 28.0"] ;
122 -> 123 ;
124 [label="X[4] <= 80.0\nmse = 0.5\nsamples = 4\nvalue = 27.2"] ;
122 -> 124 ;
125 [label="X[3] <= 14.45\nmse = 0.64\nsamples = 2\nvalue = 27.6"] ;
124 -> 125 ;
126 [label="mse = 0.0\nsamples = 1\nvalue = 26.8"] ;
125 -> 126 ;
127 [label="mse = -0.0\nsamples = 1\nvalue = 28.4"] ;
125 -> 127 ;
128 [label="X[3] <= 17.5\nmse = 0.04\nsamples = 2\nvalue = 26.8"] ;
124 -> 128 ;
129 [label="mse = 0.0\nsamples = 1\nvalue = 26.6"] ;
128 -> 129 ;
130 [label="mse = -0.0\nsamples = 1\nvalue = 27.0"] ;
128 -> 130 ;
131 [label="X[2] <= 2612.5\nmse = 3.376\nsamples = 3\nvalue = 29.767"] ;
115 -> 131 ;
132 [label="mse = 0.0\nsamples = 1\nvalue = 27.5"] ;
131 -> 132 ;
133 [label="X[3] <= 14.7\nmse = 1.21\nsamples = 2\nvalue = 30.9"] ;
131 -> 133 ;
134 [label="mse = 0.0\nsamples = 1\nvalue = 32.0"] ;
133 -> 134 ;
135 [label="mse = 0.0\nsamples = 1\nvalue = 29.8"] ;
133 -> 135 ;
136 [label="X[1] <= 117.5\nmse = 22.219\nsamples = 79\nvalue = 18.127"] ;
0 -> 136 [labeldistance=2.5, labelangle=-45, headlabel="False"] ;
137 [label="X[0] <= 261.0\nmse = 16.04\nsamples = 42\nvalue = 21.324"] ;
136 -> 137 ;
138 [label="X[4] <= 78.5\nmse = 8.892\nsamples = 40\nvalue = 20.775"] ;
137 -> 138 ;
139 [label="X[0] <= 241.0\nmse = 3.812\nsamples = 30\nvalue = 19.797"] ;
138 -> 139 ;
140 [label="X[4] <= 73.5\nmse = 2.894\nsamples = 23\nvalue = 20.391"] ;
139 -> 140 ;
141 [label="X[0] <= 120.5\nmse = 1.36\nsamples = 5\nvalue = 18.8"] ;
140 -> 141 ;
142 [label="mse = 0.0\nsamples = 1\nvalue = 21.0"] ;
141 -> 142 ;
143 [label="X[2] <= 2900.5\nmse = 0.188\nsamples = 4\nvalue = 18.25"] ;
141 -> 143 ;
144 [label="mse = 0.0\nsamples = 1\nvalue = 19.0"] ;
143 -> 144 ;
145 [label="mse = 0.0\nsamples = 3\nvalue = 18.0"] ;
143 -> 145 ;
146 [label="X[2] <= 3120.0\nmse = 2.421\nsamples = 18\nvalue = 20.833"] ;
140 -> 146 ;
147 [label="X[3] <= 16.3\nmse = 1.911\nsamples = 11\nvalue = 21.664"] ;
146 -> 147 ;
148 [label="X[3] <= 15.25\nmse = 1.09\nsamples = 5\nvalue = 20.76"] ;
147 -> 148 ;
149 [label="X[0] <= 176.0\nmse = 0.167\nsamples = 3\nvalue = 21.5"] ;
148 -> 149 ;
150 [label="X[3] <= 14.0\nmse = 0.062\nsamples = 2\nvalue = 21.75"] ;
149 -> 150 ;
151 [label="mse = 0.0\nsamples = 1\nvalue = 21.5"] ;
150 -> 151 ;
152 [label="mse = 0.0\nsamples = 1\nvalue = 22.0"] ;
150 -> 152 ;
153 [label="mse = 0.0\nsamples = 1\nvalue = 21.0"] ;
149 -> 153 ;
154 [label="X[5] <= 2.5\nmse = 0.423\nsamples = 2\nvalue = 19.65"] ;
148 -> 154 ;
155 [label="mse = 0.0\nsamples = 1\nvalue = 20.3"] ;
154 -> 155 ;
156 [label="mse = 0.0\nsamples = 1\nvalue = 19.0"] ;
154 -> 156 ;
157 [label="X[4] <= 74.5\nmse = 1.348\nsamples = 6\nvalue = 22.417"] ;
147 -> 157 ;
158 [label="mse = 0.0\nsamples = 1\nvalue = 21.0"] ;
157 -> 158 ;
159 [label="X[2] <= 3041.0\nmse = 1.136\nsamples = 5\nvalue = 22.7"] ;
157 -> 159 ;
160 [label="X[0] <= 178.0\nmse = 0.187\nsamples = 3\nvalue = 23.4"] ;
159 -> 160 ;
161 [label="X[5] <= 1.5\nmse = 0.01\nsamples = 2\nvalue = 23.1"] ;
160 -> 161 ;
162 [label="mse = 0.0\nsamples = 1\nvalue = 23.2"] ;
161 -> 162 ;
163 [label="mse = -0.0\nsamples = 1\nvalue = 23.0"] ;
161 -> 163 ;
164 [label="mse = 0.0\nsamples = 1\nvalue = 24.0"] ;
160 -> 164 ;
165 [label="X[0] <= 216.0\nmse = 0.723\nsamples = 2\nvalue = 21.65"] ;
159 -> 165 ;
166 [label="mse = 0.0\nsamples = 1\nvalue = 20.8"] ;
165 -> 166 ;
167 [label="mse = 0.0\nsamples = 1\nvalue = 22.5"] ;
165 -> 167 ;
168 [label="X[4] <= 77.5\nmse = 0.436\nsamples = 7\nvalue = 19.529"] ;
146 -> 168 ;
169 [label="mse = 0.0\nsamples = 3\nvalue = 19.0"] ;
168 -> 169 ;
170 [label="X[3] <= 18.7\nmse = 0.397\nsamples = 4\nvalue = 19.925"] ;
168 -> 170 ;
171 [label="X[1] <= 92.5\nmse = 0.296\nsamples = 3\nvalue = 20.167"] ;
170 -> 171 ;
172 [label="mse = 0.0\nsamples = 1\nvalue = 19.4"] ;
171 -> 172 ;
173 [label="X[0] <= 215.5\nmse = 0.003\nsamples = 2\nvalue = 20.55"] ;
171 -> 173 ;
174 [label="mse = 0.0\nsamples = 1\nvalue = 20.5"] ;
173 -> 174 ;
175 [label="mse = 0.0\nsamples = 1\nvalue = 20.6"] ;
173 -> 175 ;
176 [label="mse = -0.0\nsamples = 1\nvalue = 19.2"] ;
170 -> 176 ;
177 [label="X[4] <= 76.5\nmse = 1.848\nsamples = 7\nvalue = 17.843"] ;
139 -> 177 ;
178 [label="X[3] <= 16.75\nmse = 1.36\nsamples = 5\nvalue = 17.3"] ;
177 -> 178 ;
179 [label="mse = 0.0\nsamples = 3\nvalue = 18.0"] ;
178 -> 179 ;
180 [label="X[0] <= 254.0\nmse = 1.562\nsamples = 2\nvalue = 16.25"] ;
178 -> 180 ;
181 [label="mse = 0.0\nsamples = 1\nvalue = 15.0"] ;
180 -> 181 ;
182 [label="mse = 0.0\nsamples = 1\nvalue = 17.5"] ;
180 -> 182 ;
183 [label="X[1] <= 104.0\nmse = 0.49\nsamples = 2\nvalue = 19.2"] ;
177 -> 183 ;
184 [label="mse = 0.0\nsamples = 1\nvalue = 18.5"] ;
183 -> 184 ;
185 [label="mse = 0.0\nsamples = 1\nvalue = 19.9"] ;
183 -> 185 ;
186 [label="X[0] <= 204.0\nmse = 12.649\nsamples = 10\nvalue = 23.71"] ;
138 -> 186 ;
187 [label="X[2] <= 3081.5\nmse = 5.989\nsamples = 6\nvalue = 25.833"] ;
186 -> 187 ;
188 [label="X[2] <= 2927.5\nmse = 1.787\nsamples = 4\nvalue = 24.725"] ;
187 -> 188 ;
189 [label="X[4] <= 81.0\nmse = 0.04\nsamples = 2\nvalue = 23.8"] ;
188 -> 189 ;
190 [label="mse = 0.0\nsamples = 1\nvalue = 23.6"] ;
189 -> 190 ;
191 [label="mse = 0.0\nsamples = 1\nvalue = 24.0"] ;
189 -> 191 ;
192 [label="X[2] <= 2976.5\nmse = 1.823\nsamples = 2\nvalue = 25.65"] ;
188 -> 192 ;
193 [label="mse = 0.0\nsamples = 1\nvalue = 27.0"] ;
192 -> 193 ;
194 [label="mse = 0.0\nsamples = 1\nvalue = 24.3"] ;
192 -> 194 ;
195 [label="X[1] <= 76.5\nmse = 7.022\nsamples = 2\nvalue = 28.05"] ;
187 -> 195 ;
196 [label="mse = 0.0\nsamples = 1\nvalue = 30.7"] ;
195 -> 196 ;
197 [label="mse = 0.0\nsamples = 1\nvalue = 25.4"] ;
195 -> 197 ;
198 [label="X[0] <= 228.0\nmse = 5.732\nsamples = 4\nvalue = 20.525"] ;
186 -> 198 ;
199 [label="X[3] <= 17.65\nmse = 0.563\nsamples = 2\nvalue = 18.35"] ;
198 -> 199 ;
200 [label="mse = 0.0\nsamples = 1\nvalue = 17.6"] ;
199 -> 200 ;
201 [label="mse = 0.0\nsamples = 1\nvalue = 19.1"] ;
199 -> 201 ;
202 [label="X[3] <= 18.8\nmse = 1.44\nsamples = 2\nvalue = 22.7"] ;
198 -> 202 ;
203 [label="mse = 0.0\nsamples = 1\nvalue = 21.5"] ;
202 -> 203 ;
204 [label="mse = 0.0\nsamples = 1\nvalue = 23.9"] ;
202 -> 204 ;
205 [label="X[1] <= 95.0\nmse = 32.49\nsamples = 2\nvalue = 32.3"] ;
137 -> 205 ;
206 [label="mse = 0.0\nsamples = 1\nvalue = 38.0"] ;
205 -> 206 ;
207 [label="mse = 0.0\nsamples = 1\nvalue = 26.6"] ;
205 -> 207 ;
208 [label="X[4] <= 77.5\nmse = 4.458\nsamples = 37\nvalue = 14.497"] ;
136 -> 208 ;
209 [label="X[3] <= 10.75\nmse = 2.648\nsamples = 31\nvalue = 13.855"] ;
208 -> 209 ;
210 [label="X[0] <= 342.5\nmse = 0.688\nsamples = 4\nvalue = 15.75"] ;
209 -> 210 ;
211 [label="mse = 0.0\nsamples = 1\nvalue = 17.0"] ;
210 -> 211 ;
212 [label="X[4] <= 71.5\nmse = 0.222\nsamples = 3\nvalue = 15.333"] ;
210 -> 212 ;
213 [label="mse = 0.0\nsamples = 2\nvalue = 15.0"] ;
212 -> 213 ;
214 [label="mse = 0.0\nsamples = 1\nvalue = 16.0"] ;
212 -> 214 ;
215 [label="X[4] <= 74.5\nmse = 2.328\nsamples = 27\nvalue = 13.574"] ;
209 -> 215 ;
216 [label="X[1] <= 177.5\nmse = 1.447\nsamples = 20\nvalue = 13.05"] ;
215 -> 216 ;
217 [label="X[2] <= 3799.0\nmse = 0.515\nsamples = 14\nvalue = 13.643"] ;
216 -> 217 ;
218 [label="mse = 0.0\nsamples = 2\nvalue = 15.0"] ;
217 -> 218 ;
219 [label="X[3] <= 14.25\nmse = 0.243\nsamples = 12\nvalue = 13.417"] ;
217 -> 219 ;
220 [label="X[4] <= 72.5\nmse = 0.21\nsamples = 10\nvalue = 13.3"] ;
219 -> 220 ;
221 [label="X[2] <= 4605.0\nmse = 0.25\nsamples = 6\nvalue = 13.5"] ;
220 -> 221 ;
222 [label="X[0] <= 329.0\nmse = 0.188\nsamples = 4\nvalue = 13.75"] ;
221 -> 222 ;
223 [label="mse = 0.0\nsamples = 1\nvalue = 13.0"] ;
222 -> 223 ;
224 [label="mse = 0.0\nsamples = 3\nvalue = 14.0"] ;
222 -> 224 ;
225 [label="mse = 0.0\nsamples = 2\nvalue = 13.0"] ;
221 -> 225 ;
226 [label="mse = 0.0\nsamples = 4\nvalue = 13.0"] ;
220 -> 226 ;
227 [label="mse = 0.0\nsamples = 2\nvalue = 14.0"] ;
219 -> 227 ;
228 [label="X[2] <= 4399.0\nmse = 0.889\nsamples = 6\nvalue = 11.667"] ;
216 -> 228 ;
229 [label="X[1] <= 190.0\nmse = 0.25\nsamples = 2\nvalue = 10.5"] ;
228 -> 229 ;
230 [label="mse = 0.0\nsamples = 1\nvalue = 11.0"] ;
229 -> 230 ;
231 [label="mse = 0.0\nsamples = 1\nvalue = 10.0"] ;
229 -> 231 ;
232 [label="X[2] <= 4460.5\nmse = 0.188\nsamples = 4\nvalue = 12.25"] ;
228 -> 232 ;
233 [label="mse = 0.0\nsamples = 1\nvalue = 13.0"] ;
232 -> 233 ;
234 [label="mse = 0.0\nsamples = 3\nvalue = 12.0"] ;
232 -> 234 ;
235 [label="X[2] <= 3951.0\nmse = 1.816\nsamples = 7\nvalue = 15.071"] ;
215 -> 235 ;
236 [label="mse = 0.0\nsamples = 2\nvalue = 13.0"] ;
235 -> 236 ;
237 [label="X[2] <= 4165.0\nmse = 0.14\nsamples = 5\nvalue = 15.9"] ;
235 -> 237 ;
238 [label="mse = 0.0\nsamples = 2\nvalue = 15.5"] ;
237 -> 238 ;
239 [label="X[3] <= 12.55\nmse = 0.056\nsamples = 3\nvalue = 16.167"] ;
237 -> 239 ;
240 [label="mse = 0.0\nsamples = 1\nvalue = 16.5"] ;
239 -> 240 ;
241 [label="mse = 0.0\nsamples = 2\nvalue = 16.0"] ;
239 -> 241 ;
242 [label="X[3] <= 14.95\nmse = 0.658\nsamples = 6\nvalue = 17.817"] ;
208 -> 242 ;
243 [label="X[3] <= 13.5\nmse = 0.33\nsamples = 5\nvalue = 17.54"] ;
242 -> 243 ;
244 [label="X[0] <= 331.0\nmse = 0.162\nsamples = 3\nvalue = 17.933"] ;
243 -> 244 ;
245 [label="X[0] <= 266.5\nmse = 0.003\nsamples = 2\nvalue = 17.65"] ;
244 -> 245 ;
246 [label="mse = 0.0\nsamples = 1\nvalue = 17.7"] ;
245 -> 246 ;
247 [label="mse = 0.0\nsamples = 1\nvalue = 17.6"] ;
245 -> 247 ;
248 [label="mse = 0.0\nsamples = 1\nvalue = 18.5"] ;
244 -> 248 ;
249 [label="X[2] <= 3750.0\nmse = 0.002\nsamples = 2\nvalue = 16.95"] ;
243 -> 249 ;
250 [label="mse = 0.0\nsamples = 1\nvalue = 17.0"] ;
249 -> 250 ;
251 [label="mse = -0.0\nsamples = 1\nvalue = 16.9"] ;
249 -> 251 ;
252 [label="mse = -0.0\nsamples = 1\nvalue = 19.2"] ;
242 -> 252 ;
}
